digraph Tree {
node [shape=box] ;
0 [label="X[4] <= 1.25\nentropy = 0.954\nsamples = 320\nvalue = [120, 200]"] ;
1 [label="X[6] <= 0.5\nentropy = 0.845\nsamples = 165\nvalue = [120, 45]"] ;
0 -> 1 [labeldistance=2.5, labelangle=45, headlabel="True"] ;
2 [label="X[0] <= 11.5\nentropy = 0.711\nsamples = 149\nvalue = [120, 29]"] ;
1 -> 2 ;
3 [label="X[1] <= 75.0\nentropy = 0.439\nsamples = 11\nvalue = [1, 10]"] ;
2 -> 3 ;
4 [label="entropy = 0.0\nsamples = 9\nvalue = [0, 9]"] ;
3 -> 4 ;
5 [label="X[4] <= 0.9\nentropy = 1.0\nsamples = 2\nvalue = [1, 1]"] ;
3 -> 5 ;
6 [label="entropy = 0.0\nsamples = 1\nvalue = [0, 1]"] ;
5 -> 6 ;
7 [label="entropy = 0.0\nsamples = 1\nvalue = [1, 0]"] ;
5 -> 7 ;
8 [label="X[1] <= 85.0\nentropy = 0.578\nsamples = 138\nvalue = [119, 19]"] ;
2 -> 8 ;
9 [label="X[8] <= 0.5\nentropy = 0.464\nsamples = 132\nvalue = [119, 13]"] ;
8 -> 9 ;
10 [label="entropy = 0.0\nsamples = 3\nvalue = [0, 3]"] ;
9 -> 10 ;
11 [label="X[9] <= 0.5\nentropy = 0.393\nsamples = 129\nvalue = [119, 10]"] ;
9 -> 11 ;
12 [label="entropy = 0.339\nsamples = 127\nvalue = [119, 8]"] ;
11 -> 12 ;
13 [label="entropy = 0.0\nsamples = 2\nvalue = [0, 2]"] ;
11 -> 13 ;
14 [label="entropy = 0.0\nsamples = 6\nvalue = [0, 6]"] ;
8 -> 14 ;
15 [label="entropy = 0.0\nsamples = 16\nvalue = [0, 16]"] ;
1 -> 15 ;
16 [label="entropy = 0.0\nsamples = 155\nvalue = [0, 155]"] ;
0 -> 16 [labeldistance=2.5, labelangle=-45, headlabel="False"] ;
}